{"learner":{"attributes":{"scikit_learn":"{\"_estimator_type\": \"classifier\"}"},"feature_names":["amount","amount_log","transaction_type_purchase","transaction_type_withdrawal","transaction_type_transfer","channel_online","channel_mobile","channel_atm","channel_pos","is_first_transaction","account_age_days","account_age_days_log","hour","day_of_week","is_weekend","is_night","is_business_hours","month","day_of_month","user_transaction_count","user_avg_amount","user_std_amount","user_max_amount","user_total_amount_24h","user_transaction_count_24h","merchant_avg_amount","merchant_transaction_count","merchant_fraud_rate","time_since_last_transaction_seconds","time_since_last_transaction_minutes","transactions_last_hour","transactions_last_day","amount_deviation_from_avg","is_amount_outlier","amount_vs_avg_ratio"],"feature_types":["float","float","int","int","int","int","int","int","int","int","float","float","int","int","int","int","int","int","int","int","float","float","float","float","int","float","int","float","float","float","int","int","float","int","float"],"gradient_booster":{"model":{"gbtree_model_param":{"num_parallel_tree":"1","num_trees":"100"},"iteration_indptr":[0,1,2,3,4,5,6,7,8,9,10,11,12,13,14,15,16,17,18,19,20,21,22,23,24,25,26,27,28,29,30,31,32,33,34,35,36,37,38,39,40,41,42,43,44,45,46,47,48,49,50,51,52,53,54,55,56,57,58,59,60,61,62,63,64,65,66,67,68,69,70,71,72,73,74,75,76,77,78,79,80,81,82,83,84,85,86,87,88,89,90,91,92,93,94,95,96,97,98,99,100],"tree_info":[0,0,0,0,0,0,0,0,0,0,0,0,0,0,0,0,0,0,0,0,0,0,0,0,0,0,0,0,0,0,0,0,0,0,0,0,0,0,0,0,0,0,0,0,0,0,0,0,0,0,0,0,0,0,0,0,0,0,0,0,0,0,0,0,0,0,0,0,0,0,0,0,0,0,0,0,0,0,0,0,0,0,0,0,0,0,0,0,0,0,0,0,0,0,0,0,0,0,0,0],"trees":[{"base_weights":[-2.2399169E-1,4.6290627E0,-1.2327217E0,-1.1329164E-1,4.687266E0,-1.2566531E0,3.810873E0,4.7080836E0,-9.492468E-2,-1.2614657E0,3.301052E-1,-8.8583365E-2,4.4813702E-1,4.7162185E0,-6.8108745E-2,-1.2638749E0,2.1203332E-1,1.8126774E-1,4.7231552E-1,-1.2662868E-1,1.2428144E0,-8.1871055E-2,2.9661325E-1],"categories":[],"categories_nodes":[],"categories_segments":[],"categories_sizes":[],"default_left":[0,0,0,0,0,0,0,0,0,0,0,0,0,0,0,0,0,0,0,0,0,0,0],"id":0,"left_children":[1,3,5,-1,7,9,11,13,-1,15,-1,-1,-1,17,-1,19,-1,-1,-1,-1,21,-1,-1],"loss_changes":[2.4662473E4,2.960547E2,5.0819873E2,0E0,1.05203125E2,9.52334E1,6.677695E1,4.071875E1,0E0,3.6475586E1,0E0,0E0,0E0,8.644531E0,0E0,2.6637695E1,0E0,0E0,0E0,0E0,1.8378948E1,0E0,0E0],"parents":[2147483647,0,0,1,1,2,2,4,4,5,5,6,6,7,7,9,9,13,13,15,15,20,20],"right_children":[2,4,6,-1,8,10,12,14,-1,16,-1,-1,-1,18,-1,20,-1,-1,-1,-1,22,-1,-1],"split_conditions":[1E1,5E0,1.4E1,-1.1329164E-1,5.8566143E1,6.3563833E0,1E0,4.546409E3,-9.492468E-2,1.1E1,3.301052E-1,-8.8583365E-2,4.4813702E-1,2E0,-6.8108745E-2,3.3249214E0,2.1203332E-1,1.8126774E-1,4.7231552E-1,-1.2662868E-1,1E0,-8.1871055E-2,2.9661325E-1],"split_indices":[19,31,31,0,29,34,33,28,0,24,0,0,0,24,0,32,0,0,0,0,9,0,0],"split_type":[0,0,0,0,0,0,0,0,0,0,0,0,0,0,0,0,0,0,0,0,0,0,0],"sum_hessian":[5.035699E3,8.659548E2,4.1697446E3,8.47509E0,8.5747974E2,4.1508003E3,1.8944319E1,8.544885E2,2.9912083E0,4.147144E3,3.6559212E0,2.3264954E0,1.6617825E1,8.5332526E2,1.1632477E0,4.144818E3,2.3264954E0,2.6588519E0,8.506664E2,4.141328E3,3.489743E0,1.8279606E0,1.6617824E0],"tree_param":{"num_deleted":"0","num_feature":"35","num_nodes":"23","size_leaf_vector":"1"}},{"base_weights":[-2.322191E-1,3.3287406E0,-1.2348405E-1,3.3416283E-1,-9.32259E-2],"categories":[],"categories_nodes":[],"categories_segments":[],"categories_sizes":[],"default_left":[0,0,0,0,0],"id":1,"left_children":[1,3,-1,-1,-1],"loss_changes":[1.777666E4,6.3188477E1,0E0,0E0,0E0],"parents":[2147483647,0,0,1,1],"right_children":[2,4,-1,-1,-1],"split_conditions":[7E1,1.4E1,-1.2348405E-1,3.3416283E-1,-9.32259E-2],"split_indices":[26,19,0,0,0],"split_type":[0,0,0,0,0],"sum_hessian":[4.976895E3,1.0929171E3,3.883978E3,1.0898365E3,3.080572E0],"tree_param":{"num_deleted":"0","num_feature":"35","num_nodes":"5","size_leaf_vector":"1"}},{"base_weights":[-2.2214691E-1,-1.1897241E0,2.637767E0,2.2375007E0,-1.2074735E-1,2.677031E0,-1.11640945E-1,-7.362206E-2,2.520741E-1,1.6336701E0,2.680753E-1,-6.435155E-2,2.2038542E-1],"categories":[],"categories_nodes":[],"categories_segments":[],"categories_sizes":[],"default_left":[0,0,0,0,0,0,0,0,0,0,0,0,0],"id":2,"left_children":[1,3,5,7,-1,9,-1,-1,-1,11,-1,-1,-1],"loss_changes":[1.3258466E4,2.2047266E2,1.8153223E2,1.7686638E1,0E0,2.7539062E-1,0E0,0E0,0E0,1.0276056E1,0E0,0E0,0E0],"parents":[2147483647,0,0,1,1,2,2,3,3,5,5,9,9],"right_children":[2,4,6,8,-1,10,-1,-1,-1,12,-1,-1,-1],"split_conditions":[5.3736996E-2,8E0,1.4E1,9E0,-1.2074735E-1,6E0,-1.11640945E-1,-7.362206E-2,2.520741E-1,1E0,2.680753E-1,-6.435155E-2,2.2038542E-1],"split_indices":[27,19,19,31,0,31,0,0,0,3,0,0,0],"split_type":[0,0,0,0,0,0,0,0,0,0,0,0,0],"sum_hessian":[4.78918E3,3.5789275E3,1.2102527E3,1.7795252E1,3.5611323E3,1.1980099E3,1.2242732E1,1.4084741E0,1.6386776E1,5.8220425E0,1.1921879E3,1.1401064E0,4.6819363E0],"tree_param":{"num_deleted":"0","num_feature":"35","num_nodes":"13","size_leaf_vector":"1"}},{"base_weights":[-2.4076486E-1,2.2755086E0,-1.18386224E-1,2.2852547E-1,-9.226814E-2],"categories":[],"categories_nodes":[],"categories_segments":[],"categories_sizes":[],"default_left":[0,0,0,0,0],"id":3,"left_children":[1,3,-1,-1,-1],"loss_changes":[1.0766545E4,4.066211E1,0E0,0E0,0E0],"parents":[2147483647,0,0,1,1],"right_children":[2,4,-1,-1,-1],"split_conditions":[7.1E1,1.4E1,-1.18386224E-1,2.2852547E-1,-9.226814E-2],"split_indices":[26,19,0,0,0],"split_type":[0,0,0,0,0],"sum_hessian":[4.5347935E3,1.235895E3,3.2988987E3,1.2324248E3,3.470185E0],"tree_param":{"num_deleted":"0","num_feature":"35","num_nodes":"5","size_leaf_vector":"1"}},{"base_weights":[-2.3429434E-1,2.0173748E0,-1.1633157E-1,-8.114468E-2,2.0231275E-1],"categories":[],"categories_nodes":[],"categories_segments":[],"categories_sizes":[],"default_left":[0,0,0,0,0],"id":4,"left_children":[1,3,-1,-1,-1],"loss_changes":[8.955959E3,2.1993652E1,0E0,0E0,0E0],"parents":[2147483647,0,0,1,1],"right_children":[2,4,-1,-1,-1],"split_conditions":[7.1E1,1.6419403E-2,-1.1633157E-1,-8.114468E-2,2.0231275E-1],"split_indices":[26,27,0,0,0],"split_type":[0,0,0,0,0],"sum_hessian":[4.2792393E3,1.249545E3,3.0296938E3,2.2518258E0,1.2472932E3],"tree_param":{"num_deleted":"0","num_feature":"35","num_nodes":"5","size_leaf_vector":"1"}},{"base_weights":[-1.9919454E-1,1.8305119E0,-1.1453024E-1,1.8370186E-1,-8.632346E-2],"categories":[],"categories_nodes":[],"categories_segments":[],"categories_sizes":[],"default_left":[0,0,0,0,0],"id":5,"left_children":[1,3,-1,-1,-1],"loss_changes":[7.8696343E3,2.442334E1,0E0,0E0,0E0],"parents":[2147483647,0,0,1,1],"right_children":[2,4,-1,-1,-1],"split_conditions":[7.1E1,1.4E1,-1.1453024E-1,1.8370186E-1,-8.632346E-2],"split_indices":[26,19,0,0,0],"split_type":[0,0,0,0,0],"sum_hessian":[4.0959907E3,1.301951E3,2.7940396E3,1.2991311E3,2.8199549E0],"tree_param":{"num_deleted":"0","num_feature":"35","num_nodes":"5","size_leaf_vector":"1"}},{"base_weights":[-2.1069397E-1,-1.1075852E0,1.6720657E0,-1.124101E0,1.5212021E0,-9.227421E-2,1.6822933E0,-1.1268059E0,5.927684E-1,7.937672E-2,1.635076E-1,1.6868186E0,-7.469301E-2,-1.1295041E-1,-5.3200907E-1,-6.2083155E-2,1.2063726E-1,1.6890517E0,6.858363E-2,-1.0292514E-1,1.2063726E-1,1.6904844E-1,8.427442E-2],"categories":[],"categories_nodes":[],"categories_segments":[],"categories_sizes":[],"default_left":[0,0,0,0,0,0,0,0,0,0,0,0,0,0,0,0,0,0,0,0,0,0,0],"id":6,"left_children":[1,3,5,7,9,-1,11,13,15,-1,-1,17,-1,-1,19,-1,-1,21,-1,-1,-1,-1,-1],"loss_changes":[6.3613027E3,1.1248682E2,3.3811523E1,1.2445068E1,5.6907654E-2,0E0,1.4573975E1,3.463379E0,4.2075233E0,0E0,0E0,1.5446777E0,0E0,0E0,1.2761406E1,0E0,0E0,3.7353516E-2,0E0,0E0,0E0,0E0,0E0],"parents":[2147483647,0,0,1,1,2,2,3,3,4,4,6,6,7,7,8,8,11,11,14,14,17,17],"right_children":[2,4,6,8,10,-1,12,14,16,-1,-1,18,-1,-1,20,-1,-1,22,-1,-1,-1,-1,-1],"split_conditions":[5.3736996E-2,1.5E1,5E0,6E0,8E0,-9.227421E-2,4.546409E3,9E0,9.180979E1,7.937672E-2,1.635076E-1,5.377764E2,-7.469301E-2,-1.1295041E-1,1.2E1,-6.2083155E-2,1.2063726E-1,3.3911172E3,6.858363E-2,-1.0292514E-1,1.2063726E-1,1.6904844E-1,8.427442E-2],"split_indices":[27,31,31,30,24,0,28,24,23,0,0,10,0,0,31,0,0,28,0,0,0,0,0],"split_type":[0,0,0,0,0,0,0,0,0,0,0,0,0,0,0,0,0,0,0,0,0,0,0],"sum_hessian":[3.76504E3,2.5504788E3,1.2145613E3,2.5351238E3,1.5355011E1,4.4181857E0,1.2101431E3,2.5314792E3,3.644431E0,3.157193E0,1.2197819E1,1.208198E3,1.945093E0,2.5191523E3,1.2326916E1,1.2199026E0,2.4245286E0,1.2048228E3,3.3752468E0,9.902388E0,2.4245286E0,1.2017909E3,3.0318873E0],"tree_param":{"num_deleted":"0","num_feature":"35","num_nodes":"23","size_leaf_vector":"1"}},{"base_weights":[-1.8982035E-1,1.5823002E0,-1.115638E-1,-7.783074E-2,1.5871679E0,7.780598E-2,1.5885197E-1],"categories":[],"categories_nodes":[],"categories_segments":[],"categories_sizes":[],"default_left":[0,0,0,0,0,0,0],"id":7,"left_children":[1,3,-1,-1,5,-1,-1],"loss_changes":[5.8381216E3,1.526709E1,0E0,0E0,9.716797E-2,0E0,0E0],"parents":[2147483647,0,0,1,1,4,4],"right_children":[2,4,-1,-1,6,-1,-1],"split_conditions":[7.1E1,1.9567132E-2,-1.115638E-1,-7.783074E-2,2.4713226E-2,7.780598E-2,1.5885197E-1],"split_indices":[26,27,0,0,27,0,0],"split_type":[0,0,0,0,0,0,0],"sum_hessian":[3.5563213E3,1.2201349E3,2.3361863E3,2.183855E0,1.217951E3,2.993086E0,1.2149579E3],"tree_param":{"num_deleted":"0","num_feature":"35","num_nodes":"7","size_leaf_vector":"1"}},{"base_weights":[-1.8407321E-1,1.4950511E0,-1.1033652E-1,1.5017562E-1,-8.4993035E-2],"categories":[],"categories_nodes":[],"categories_segments":[],"categories_sizes":[],"default_left":[0,0,0,0,0],"id":8,"left_children":[1,3,-1,-1,-1],"loss_changes":[5.1031235E3,1.9667236E1,0E0,0E0,0E0],"parents":[2147483647,0,0,1,1],"right_children":[2,4,-1,-1,-1],"split_conditions":[7.1E1,1.4E1,-1.1033652E-1,1.5017562E-1,-8.4993035E-2],"split_indices":[26,19,0,0,0],"split_type":[0,0,0,0,0],"sum_hessian":[3.303908E3,1.1686658E3,2.1352422E3,1.1656923E3,2.9735076E0],"tree_param":{"num_deleted":"0","num_feature":"35","num_nodes":"5","size_leaf_vector":"1"}},{"base_weights":[-1.798097E-1,-1.0664794E0,1.4106262E0,1.2560049E0,-1.089099E0,1.4289498E-1,-9.8218665E-2,-5.75276E-2,1.391201E-1,-1.0924365E-1,1.1523721E-1],"categories":[],"categories_nodes":[],"categories_segments":[],"categories_sizes":[],"default_left":[0,0,0,0,0,0,0,0,0,0,0],"id":9,"left_children":[1,3,5,7,9,-1,-1,-1,-1,-1,-1],"loss_changes":[4.3108555E3,1.044707E2,4.9381104E1,5.6020794E0,1.5803223E1,0E0,0E0,0E0,0E0,0E0,0E0],"parents":[2147483647,0,0,1,1,2,2,3,3,4,4],"right_children":[2,4,6,8,10,-1,-1,-1,-1,-1,-1],"split_conditions":[5.3736996E-2,8E0,1.4E1,9E0,1.8E1,1.4289498E-1,-9.8218665E-2,-5.75276E-2,1.391201E-1,-1.0924365E-1,1.1523721E-1],"split_indices":[27,19,19,31,31,0,0,0,0,0,0],"split_type":[0,0,0,0,0,0,0,0,0,0,0],"sum_hessian":[3.0548625E3,1.9615986E3,1.0932638E3,1.8394623E1,1.943204E3,1.0853552E3,7.908573E0,1.0408459E0,1.7353777E1,1.9408268E3,2.377183E0],"tree_param":{"num_deleted":"0","num_feature":"35","num_nodes":"11","size_leaf_vector":"1"}},{"base_weights":[-1.7688273E-1,1.3695443E0,-1.08283006E-1,-5.951348E-2,1.3723378E-1],"categories":[],"categories_nodes":[],"categories_segments":[],"categories_sizes":[],"default_left":[0,0,0,0,0],"id":10,"left_children":[1,3,-1,-1,-1],"loss_changes":[3.9416033E3,6.5213623E0,0E0,0E0,0E0],"parents":[2147483647,0,0,1,1],"right_children":[2,4,-1,-1,-1],"split_conditions":[7E1,1.9567132E-2,-1.08283006E-1,-5.951348E-2,1.3723378E-1],"split_indices":[26,27,0,0,0],"split_type":[0,0,0,0,0],"sum_hessian":[2.8114001E3,1.0383883E3,1.7730118E3,1.1732538E0,1.037215E3],"tree_param":{"num_deleted":"0","num_feature":"35","num_nodes":"5","size_leaf_vector":"1"}},{"base_weights":[-1.7138523E-1,1.3205733E0,-1.0742146E-1,1.3264826E-1,-7.839855E-2],"categories":[],"categories_nodes":[],"categories_segments":[],"categories_sizes":[],"default_left":[0,0,0,0,0],"id":11,"left_children":[1,3,-1,-1,-1],"loss_changes":[3.4874739E3,1.3179443E1,0E0,0E0,0E0],"parents":[2147483647,0,0,1,1],"right_children":[2,4,-1,-1,-1],"split_conditions":[7.1E1,1.4E1,-1.0742146E-1,1.3264826E-1,-7.839855E-2],"split_indices":[26,19,0,0,0],"split_type":[0,0,0,0,0],"sum_hessian":[2.587045E3,9.751354E2,1.6119097E3,9.727737E2,2.3616533E0],"tree_param":{"num_deleted":"0","num_feature":"35","num_nodes":"5","size_leaf_vector":"1"}},{"base_weights":[-1.7962639E-1,1.2805411E0,-1.06654875E-1,1.2847811E-1,-6.8272375E-2],"categories":[],"categories_nodes":[],"categories_segments":[],"categories_sizes":[],"default_left":[0,0,0,0,0],"id":12,"left_children":[1,3,-1,-1,-1],"loss_changes":[3.0833967E3,8.367065E0,0E0,0E0,0E0],"parents":[2147483647,0,0,1,1],"right_children":[2,4,-1,-1,-1],"split_conditions":[7E1,1.4E1,-1.06654875E-1,1.2847811E-1,-6.8272375E-2],"split_indices":[26,19,0,0,0],"split_type":[0,0,0,0,0],"sum_hessian":[2.3788457E3,8.987546E2,1.4800911E3,8.9716254E2,1.5920328E0],"tree_param":{"num_deleted":"0","num_feature":"35","num_nodes":"5","size_leaf_vector":"1"}},{"base_weights":[-1.9372281E-1,1.2458864E0,-1.0596742E-1,-6.750855E-2,1.2506685E-1],"categories":[],"categories_nodes":[],"categories_segments":[],"categories_sizes":[],"default_left":[0,0,0,0,0],"id":13,"left_children":[1,3,-1,-1,-1],"loss_changes":[2.689353E3,8.288086E0,0E0,0E0,0E0],"parents":[2147483647,0,0,1,1],"right_children":[2,4,-1,-1,-1],"split_conditions":[7.1E1,1.9567132E-2,-1.0596742E-1,-6.750855E-2,1.2506685E-1],"split_indices":[26,27,0,0,0],"split_type":[0,0,0,0,0],"sum_hessian":[2.1552368E3,8.0932605E2,1.3459108E3,1.661635E0,8.076644E2],"tree_param":{"num_deleted":"0","num_feature":"35","num_nodes":"5","size_leaf_vector":"1"}},{"base_weights":[-1.8121822E-1,1.2155228E0,-1.0535204E-1,1.22070394E-1,-7.019245E-2],"categories":[],"categories_nodes":[],"categories_segments":[],"categories_sizes":[],"default_left":[0,0,0,0,0],"id":14,"left_children":[1,3,-1,-1,-1],"loss_changes":[2.4295688E3,8.473511E0,0E0,0E0,0E0],"parents":[2147483647,0,0,1,1],"right_children":[2,4,-1,-1,-1],"split_conditions":[7E1,1.4E1,-1.0535204E-1,1.22070394E-1,-7.019245E-2],"split_indices":[26,19,0,0,0],"split_type":[0,0,0,0,0],"sum_hessian":[1.9920465E3,7.656633E2,1.2263832E3,7.639624E2,1.700947E0],"tree_param":{"num_deleted":"0","num_feature":"35","num_nodes":"5","size_leaf_vector":"1"}},{"base_weights":[-1.8706056E-1,1.1915215E0,-1.0480036E-1,1.196655E-1,-6.67701E-2],"categories":[],"categories_nodes":[],"categories_segments":[],"categories_sizes":[],"default_left":[0,0,0,0,0],"id":15,"left_children":[1,3,-1,-1,-1],"loss_changes":[2.1504622E3,7.447632E0,0E0,0E0,0E0],"parents":[2147483647,0,0,1,1],"right_children":[2,4,-1,-1,-1],"split_conditions":[7.1E1,1.4E1,-1.0480036E-1,1.196655E-1,-6.67701E-2],"split_indices":[26,19,0,0,0],"split_type":[0,0,0,0,0],"sum_hessian":[1.8098085E3,6.95599E2,1.1142095E3,6.9403906E2,1.5599767E0],"tree_param":{"num_deleted":"0","num_feature":"35","num_nodes":"5","size_leaf_vector":"1"}},{"base_weights":[-1.7347962E-1,-1.0187091E0,1.1578115E0,-1.0367564E0,7.334713E-1,-6.729209E-2,1.1639185E0,-1.0430872E-1,-7.298606E-2,-6.610565E-2,1.0624079E-1,1.1676693E0,1.22697145E-1,-8.2944475E-2,8.958039E-2,7.053771E-1,1.1709718E-1,-5.5291254E-2,6.7946635E-2,1.5576822E-2,9.319977E-2],"categories":[],"categories_nodes":[],"categories_segments":[],"categories_sizes":[],"default_left":[0,0,0,0,0,0,0,0,0,0,0,0,0,0,0,0,0,0,0,0,0],"id":16,"left_children":[1,3,5,7,9,-1,11,-1,13,-1,-1,15,17,-1,-1,19,-1,-1,-1,-1,-1],"loss_changes":[1.8802178E3,3.3076294E1,8.038696E0,6.0981445E0,5.7500863E0,0E0,2.3841553E0,0E0,6.3705535E0,0E0,0E0,1.5844727E-1,1.6697963E0,0E0,0E0,7.37659E-1,0E0,0E0,0E0,0E0,0E0],"parents":[2147483647,0,0,1,1,2,2,3,3,4,4,6,6,8,8,11,11,12,12,15,15],"right_children":[2,4,6,8,10,-1,12,-1,14,-1,-1,16,18,-1,-1,20,-1,-1,-1,-1,-1],"split_conditions":[5.3736996E-2,1.3E1,5E0,9E0,1E0,-6.729209E-2,3.4623572E3,-1.0430872E-1,3.885938E-2,-6.610565E-2,1.0624079E-1,7E0,2.3803244E1,-8.2944475E-2,8.958039E-2,1.324456E-1,1.1709718E-1,-5.5291254E-2,6.7946635E-2,1.5576822E-2,9.319977E-2],"split_indices":[27,31,31,24,9,0,28,0,27,0,0,31,21,0,0,27,0,0,0,0,0],"split_type":[0,0,0,0,0,0,0,0,0,0,0,0,0,0,0,0,0,0,0,0,0],"sum_hessian":[1.6688905E3,1.0209376E3,6.479529E2,1.0109334E3,1.0004251E1,1.7912507E0,6.461616E2,1.0042544E3,6.678976E0,1.7166845E0,8.287566E0,6.437213E2,2.4403317E0,3.8312564E0,2.8477194E0,6.08804E0,6.3763324E2,1.1056327E0,1.3346992E0,2.2700295E0,3.8180103E0],"tree_param":{"num_deleted":"0","num_feature":"35","num_nodes":"21","size_leaf_vector":"1"}},{"base_weights":[-1.5597963E-1,1.148594E0,-1.0385944E-1,-5.904019E-2,1.1530846E0,1.1545739E-1,3.4343686E-2],"categories":[],"categories_nodes":[],"categories_segments":[],"categories_sizes":[],"default_left":[0,0,0,0,0,0,0],"id":17,"left_children":[1,3,-1,-1,5,-1,-1],"loss_changes":[1.7696315E3,5.524536E0,0E0,0E0,3.4985352E-1,0E0,0E0],"parents":[2147483647,0,0,1,1,4,4],"right_children":[2,4,-1,-1,6,-1,-1],"split_conditions":[7.1E1,1.9567132E-2,-1.0385944E-1,-5.904019E-2,5.452214E1,1.1545739E-1,3.4343686E-2],"split_indices":[26,27,0,0,29,0,0],"split_type":[0,0,0,0,0,0,0],"sum_hessian":[1.5348551E3,6.192515E2,9.156036E2,1.2589545E0,6.1799255E2,6.1643274E2,1.5598279E0],"tree_param":{"num_deleted":"0","num_feature":"35","num_nodes":"7","size_leaf_vector":"1"}},{"base_weights":[-1.78743E-1,-1.0193236E0,1.1076999E0,9.6017E-2,-1.0345902E-1,1.1341077E0,-9.058454E-2,1.1361464E-1,2.628893E-2],"categories":[],"categories_nodes":[],"categories_segments":[],"categories_sizes":[],"default_left":[0,0,0,0,0,0,0,0,0],"id":18,"left_children":[1,3,5,-1,-1,7,-1,-1,-1],"loss_changes":[1.5032285E3,2.6398132E1,3.0242554E1,0E0,0E0,6.654053E-1,0E0,0E0,0E0],"parents":[2147483647,0,0,1,1,2,2,5,5],"right_children":[2,4,6,-1,-1,8,-1,-1,-1],"split_conditions":[4.806393E-2,7E0,1.4E1,9.6017E-2,-1.0345902E-1,4.8083538E1,-9.058454E-2,1.1361464E-1,2.628893E-2],"split_indices":[27,19,19,0,0,29,0,0,0],"split_type":[0,0,0,0,0,0,0,0,0],"sum_hessian":[1.3880851E3,8.396519E2,5.4843317E2,5.9525003E0,8.336994E2,5.4176465E2,6.668533E0,5.401964E2,1.5681988E0],"tree_param":{"num_deleted":"0","num_feature":"35","num_nodes":"9","size_leaf_vector":"1"}},{"base_weights":[-1.7958227E-1,1.1155485E0,-1.0309583E-1,1.12291455E-1,-6.721337E-2],"categories":[],"categories_nodes":[],"categories_segments":[],"categories_sizes":[],"default_left":[0,0,0,0,0],"id":19,"left_children":[1,3,-1,-1,-1],"loss_changes":[1.3880663E3,7.3306885E0,0E0,0E0,0E0],"parents":[2147483647,0,0,1,1],"right_children":[2,4,-1,-1,-1],"split_conditions":[7.1E1,1.4E1,-1.0309583E-1,1.12291455E-1,-6.721337E-2],"split_indices":[26,19,0,0,0],"split_type":[0,0,0,0,0],"sum_hessian":[1.2568104E3,4.9836978E2,7.584407E2,4.96695E2,1.6747701E0],"tree_param":{"num_deleted":"0","num_feature":"35","num_nodes":"5","size_leaf_vector":"1"}},{"base_weights":[-1.8317617E-1,1.101715E0,-1.0276643E-1,1.1095885E-1,-6.648242E-2],"categories":[],"categories_nodes":[],"categories_segments":[],"categories_sizes":[],"default_left":[0,0,0,0,0],"id":20,"left_children":[1,3,-1,-1,-1],"loss_changes":[1.2368536E3,7.026367E0,0E0,0E0,0E0],"parents":[2147483647,0,0,1,1],"right_children":[2,4,-1,-1,-1],"split_conditions":[7.1E1,1.4E1,-1.0276643E-1,1.1095885E-1,-6.648242E-2],"split_indices":[26,19,0,0,0],"split_type":[0,0,0,0,0],"sum_hessian":[1.1378347E3,4.5113177E2,6.8670294E2,4.4950024E2,1.6315497E0],"tree_param":{"num_deleted":"0","num_feature":"35","num_nodes":"5","size_leaf_vector":"1"}},{"base_weights":[-1.79876E-1,1.0905149E0,-1.0246699E-1,1.0974697E-1,-6.0965974E-2],"categories":[],"categories_nodes":[],"categories_segments":[],"categories_sizes":[],"default_left":[0,0,0,0,0],"id":21,"left_children":[1,3,-1,-1,-1],"loss_changes":[1.1199323E3,5.5980225E0,0E0,0E0,0E0],"parents":[2147483647,0,0,1,1],"right_children":[2,4,-1,-1,-1],"split_conditions":[7.1E1,1.4E1,-1.0246699E-1,1.0974697E-1,-6.0965974E-2],"split_indices":[26,19,0,0,0],"split_type":[0,0,0,0,0],"sum_hessian":[1.0414856E3,4.158478E2,6.256378E2,4.145067E2,1.341096E0],"tree_param":{"num_deleted":"0","num_feature":"35","num_nodes":"5","size_leaf_vector":"1"}},{"base_weights":[-1.7303994E-1,-9.9879026E-1,1.0708293E0,8.308744E-1,-1.0179645E0,1.0846764E-1,-7.358479E-2,2.6346361E-2,9.019402E-2,-1.0219534E-1,5.816434E-2],"categories":[],"categories_nodes":[],"categories_segments":[],"categories_sizes":[],"default_left":[0,0,0,0,0,0,0,0,0,0,0],"id":22,"left_children":[1,3,5,7,9,-1,-1,-1,-1,-1,-1],"loss_changes":[9.804006E2,2.0967712E1,1.0327332E1,2.4433136E-2,4.219116E0,0E0,0E0,0E0,0E0,0E0,0E0],"parents":[2147483647,0,0,1,1,2,2,3,3,4,4],"right_children":[2,4,6,8,10,-1,-1,-1,-1,-1,-1],"split_conditions":[5.3736996E-2,8E0,1.4E1,1E0,1.7E1,1.0846764E-1,-7.358479E-2,2.6346361E-2,9.019402E-2,-1.0219534E-1,5.816434E-2],"split_indices":[27,19,19,9,31,0,0,0,0,0,0],"split_type":[0,0,0,0,0,0,0,0,0,0,0],"sum_hessian":[9.5246783E2,5.725644E2,3.7990344E2,5.498988E0,5.670654E2,3.7741043E2,2.492988E0,1.136016E0,4.3629723E0,5.660151E2,1.0503494E0],"tree_param":{"num_deleted":"0","num_feature":"35","num_nodes":"11","size_leaf_vector":"1"}},{"base_weights":[-1.9792144E-1,-1.0062528E0,1.0467335E0,7.786017E-2,-1.0194645E-1,1.0727402E0,-8.26753E-2,1.0751223E-1,2.0360447E-2],"categories":[],"categories_nodes":[],"categories_segments":[],"categories_sizes":[],"default_left":[0,0,0,0,0,0,0,0,0],"id":23,"left_children":[1,3,5,-1,-1,7,-1,-1,-1],"loss_changes":[8.571675E2,1.2971008E1,1.7235016E1,0E0,0E0,4.671631E-1,0E0,0E0,0E0],"parents":[2147483647,0,0,1,1,2,2,5,5],"right_children":[2,4,6,-1,-1,8,-1,-1,-1],"split_conditions":[4.806393E-2,7E0,1.4E1,7.786017E-2,-1.0194645E-1,1.3E1,-8.26753E-2,1.0751223E-1,2.0360447E-2],"split_indices":[27,19,19,0,0,19,0,0,0],"split_type":[0,0,0,0,0,0,0,0,0],"sum_hessian":[8.499291E2,5.1539886E2,3.3453018E2,3.3613684E0,5.1203754E2,3.3037155E2,4.1586227E0,3.292322E2,1.1393297E0],"tree_param":{"num_deleted":"0","num_feature":"35","num_nodes":"9","size_leaf_vector":"1"}},{"base_weights":[-1.5785804E-1,1.061939E0,-1.017244E-1,1.069312E-1,-5.614319E-2],"categories":[],"categories_nodes":[],"categories_segments":[],"categories_sizes":[],"default_left":[0,0,0,0,0],"id":24,"left_children":[1,3,-1,-1,-1],"loss_changes":[8.371501E2,4.5518494E0,0E0,0E0,0E0],"parents":[2147483647,0,0,1,1],"right_children":[2,4,-1,-1,-1],"split_conditions":[7.1E1,1.4E1,-1.017244E-1,1.069312E-1,-5.614319E-2],"split_indices":[26,19,0,0,0],"split_type":[0,0,0,0,0],"sum_hessian":[7.9656616E2,3.291462E2,4.6741992E2,3.2799783E2,1.1483788E0],"tree_param":{"num_deleted":"0","num_feature":"35","num_nodes":"5","size_leaf_vector":"1"}},{"base_weights":[-1.8098713E-1,-9.921832E-1,1.0438153E0,8.000532E-2,-1.015121E-1,1.0577847E-1,-6.706288E-2],"categories":[],"categories_nodes":[],"categories_segments":[],"categories_sizes":[],"default_left":[0,0,0,0,0,0,0],"id":25,"left_children":[1,3,5,-1,-1,-1,-1],"loss_changes":[7.05833E2,1.8376434E1,7.4900513E0,0E0,0E0,0E0,0E0],"parents":[2147483647,0,0,1,1,2,2],"right_children":[2,4,6,-1,-1,-1,-1],"split_conditions":[5.3736996E-2,8E0,1.4E1,8.000532E-2,-1.015121E-1,1.0577847E-1,-6.706288E-2],"split_indices":[27,19,19,0,0,0,0],"split_type":[0,0,0,0,0,0,0],"sum_hessian":[7.083693E2,4.2625037E2,2.82119E2,4.9582744E0,4.2129208E2,2.8021875E2,1.9002373E0],"tree_param":{"num_deleted":"0","num_feature":"35","num_nodes":"7","size_leaf_vector":"1"}},{"base_weights":[-1.6841519E-1,1.0478376E0,-1.0132267E-1,-4.014551E-3,1.0536803E-1],"categories":[],"categories_nodes":[],"categories_segments":[],"categories_sizes":[],"default_left":[0,0,0,0,0],"id":26,"left_children":[1,3,-1,-1,-1],"loss_changes":[6.68579E2,1.7381287E0,0E0,0E0,0E0],"parents":[2147483647,0,0,1,1],"right_children":[2,4,-1,-1,-1],"split_conditions":[7E1,2.4713226E-2,-1.0132267E-1,-4.014551E-3,1.0536803E-1],"split_indices":[26,27,0,0,0],"split_type":[0,0,0,0,0],"sum_hessian":[6.486491E2,2.657769E2,3.8287222E2,1.3882947E0,2.6438858E2],"tree_param":{"num_deleted":"0","num_feature":"35","num_nodes":"5","size_leaf_vector":"1"}},{"base_weights":[-1.7539696E-1,1.0403398E0,-1.01143554E-1,-1.0495872E-2,1.0482597E-1],"categories":[],"categories_nodes":[],"categories_segments":[],"categories_sizes":[],"default_left":[0,0,0,0,0],"id":27,"left_children":[1,3,-1,-1,-1],"loss_changes":[5.985332E2,2.2871704E0,0E0,0E0,0E0],"parents":[2147483647,0,0,1,1],"right_children":[2,4,-1,-1,-1],"split_conditions":[7.1E1,2.4713226E-2,-1.01143554E-1,-1.0495872E-2,1.0482597E-1],"split_indices":[26,27,0,0,0],"split_type":[0,0,0,0,0],"sum_hessian":[5.8683875E2,2.390201E2,3.4781866E2,1.5573632E0,2.3746272E2],"tree_param":{"num_deleted":"0","num_feature":"35","num_nodes":"5","size_leaf_vector":"1"}},{"base_weights":[-1.738328E-1,1.0347706E0,-1.00975014E-1,-5.315104E-3,1.0422412E-1],"categories":[],"categories_nodes":[],"categories_segments":[],"categories_sizes":[],"default_left":[0,0,0,0,0],"id":28,"left_children":[1,3,-1,-1,-1],"loss_changes":[5.383785E2,1.8267517E0,0E0,0E0,0E0],"parents":[2147483647,0,0,1,1],"right_children":[2,4,-1,-1,-1],"split_conditions":[7.1E1,2.34701E-2,-1.00975014E-1,-5.315104E-3,1.0422412E-1],"split_indices":[26,27,0,0,0],"split_type":[0,0,0,0,0],"sum_hessian":[5.3085944E2,2.1694853E2,3.1391092E2,1.4378977E0,2.1551064E2],"tree_param":{"num_deleted":"0","num_feature":"35","num_nodes":"5","size_leaf_vector":"1"}},{"base_weights":[-1.6509019E-1,-9.795011E-1,1.0207574E0,7.71985E-2,-1.008228E-1,1.0346898E0,-5.8488276E-2,2.8089955E-2,1.03760295E-1],"categories":[],"categories_nodes":[],"categories_segments":[],"categories_sizes":[],"default_left":[0,0,0,0,0,0,0,0,0],"id":29,"left_children":[1,3,5,-1,-1,7,-1,-1,-1],"loss_changes":[4.7295917E2,1.5381012E1,5.0671844E0,0E0,0E0,1.4355469E-1,0E0,0E0,0E0],"parents":[2147483647,0,0,1,1,2,2,5,5],"right_children":[2,4,6,-1,-1,8,-1,-1,-1],"split_conditions":[5.3736996E-2,8E0,1.4E1,7.71985E-2,-1.008228E-1,6E0,-5.8488276E-2,2.8089955E-2,1.03760295E-1],"split_indices":[27,19,19,0,0,31,0,0,0],"split_type":[0,0,0,0,0,0,0,0,0],"sum_hessian":[4.8768848E2,2.8922787E2,1.9846059E2,4.249678E0,2.849782E2,1.9710587E2,1.354723E0,1.1338986E0,1.9597197E2],"tree_param":{"num_deleted":"0","num_feature":"35","num_nodes":"9","size_leaf_vector":"1"}},{"base_weights":[-1.6992523E-1,1.0259492E0,-1.0067216E-1,1.03338145E-1,-1.9289004E-3],"categories":[],"categories_nodes":[],"categories_segments":[],"categories_sizes":[],"default_left":[0,0,0,0,0],"id":30,"left_children":[1,3,-1,-1,-1],"loss_changes":[4.4003986E2,1.4267731E0,0E0,0E0,0E0],"parents":[2147483647,0,0,1,1],"right_children":[2,4,-1,-1,-1],"split_conditions":[7.1E1,1.2E1,-1.0067216E-1,1.03338145E-1,-1.9289004E-3],"split_indices":[26,19,0,0,0],"split_type":[0,0,0,0,0],"sum_hessian":[4.3769843E2,1.8009572E2,2.5760272E2,1.7883543E2,1.2602786E0],"tree_param":{"num_deleted":"0","num_feature":"35","num_nodes":"5","size_leaf_vector":"1"}},{"base_weights":[-1.6592887E-1,1.01922E0,-1.00531474E-1,-2.1063996E-2,1.02918066E-1],"categories":[],"categories_nodes":[],"categories_segments":[],"categories_sizes":[],"default_left":[0,0,0,0,0],"id":31,"left_children":[1,3,-1,-1,-1],"loss_changes":[4.0025906E2,2.2611694E0,0E0,0E0,0E0],"parents":[2147483647,0,0,1,1],"right_children":[2,4,-1,-1,-1],"split_conditions":[7.1E1,2.7932111E-2,-1.00531474E-1,-2.1063996E-2,1.02918066E-1],"split_indices":[26,27,0,0,0],"split_type":[0,0,0,0,0],"sum_hessian":[4.003224E2,1.6588756E2,2.3443484E2,1.170873E0,1.6471669E2],"tree_param":{"num_deleted":"0","num_feature":"35","num_nodes":"5","size_leaf_vector":"1"}},{"base_weights":[-1.4973135E-1,1.0154723E0,-1.00395836E-1,-7.2721387E-3,1.02507666E-1],"categories":[],"categories_nodes":[],"categories_segments":[],"categories_sizes":[],"default_left":[0,0,0,0,0],"id":32,"left_children":[1,3,-1,-1,-1],"loss_changes":[3.6720242E2,1.706192E0,0E0,0E0,0E0],"parents":[2147483647,0,0,1,1],"right_children":[2,4,-1,-1,-1],"split_conditions":[7.1E1,2.7932111E-2,-1.00395836E-1,-7.2721387E-3,1.02507666E-1],"split_indices":[26,27,0,0,0],"split_type":[0,0,0,0,0],"sum_hessian":[3.668942E2,1.5511783E2,2.1177637E2,1.2995845E0,1.5381824E2],"tree_param":{"num_deleted":"0","num_feature":"35","num_nodes":"5","size_leaf_vector":"1"}},{"base_weights":[-1.6927134E-1,1.0073808E0,-1.0026481E-1,1.0149562E0,3.7340752E-3,1.019061E-1,2.6357247E-2],"categories":[],"categories_nodes":[],"categories_segments":[],"categories_sizes":[],"default_left":[0,0,0,0,0,0,0],"id":33,"left_children":[1,3,-1,5,-1,-1,-1],"loss_changes":[3.2368265E2,9.6832275E-1,0E0,1.5034485E-1,0E0,0E0,0E0],"parents":[2147483647,0,0,1,1,3,3],"right_children":[2,4,-1,6,-1,-1,-1],"split_conditions":[7.1E1,4.354009E1,-1.0026481E-1,4.5885068E2,3.7340752E-3,1.019061E-1,2.6357247E-2],"split_indices":[26,29,0,10,0,0,0],"split_type":[0,0,0,0,0,0,0],"sum_hessian":[3.280581E2,1.3592938E2,1.9212872E2,1.3483014E2,1.0992435E0,1.3374327E2,1.0868714E0],"tree_param":{"num_deleted":"0","num_feature":"35","num_nodes":"7","size_leaf_vector":"1"}},{"base_weights":[-1.5275879E-1,-9.8402697E-1,9.902373E-1,5.7321638E-2,-1.0014427E-1,1.0139199E-1,-6.0464468E-2],"categories":[],"categories_nodes":[],"categories_segments":[],"categories_sizes":[],"default_left":[0,0,0,0,0,0,0],"id":34,"left_children":[1,3,5,-1,-1,-1,-1],"loss_changes":[2.88101E2,5.3325195E0,5.4378815E0,0E0,0E0,0E0,0E0],"parents":[2147483647,0,0,1,1,2,2],"right_children":[2,4,6,-1,-1,-1,-1],"split_conditions":[4.806393E-2,7E0,1.4E1,5.7321638E-2,-1.0014427E-1,1.0139199E-1,-6.0464468E-2],"split_indices":[27,19,19,0,0,0,0],"split_type":[0,0,0,0,0,0,0],"sum_hessian":[3.0119516E2,1.7445682E2,1.2673834E2,1.5765282E0,1.728803E2,1.2524286E2,1.4954891E0],"tree_param":{"num_deleted":"0","num_feature":"35","num_nodes":"7","size_leaf_vector":"1"}},{"base_weights":[-1.6263597E-1,1.0005926E0,-1.0001401E-1,-1.3264947E-2,1.0146119E-1],"categories":[],"categories_nodes":[],"categories_segments":[],"categories_sizes":[],"default_left":[0,0,0,0,0],"id":35,"left_children":[1,3,-1,-1,-1],"loss_changes":[2.671114E2,1.9591141E0,0E0,0E0,0E0],"parents":[2147483647,0,0,1,1],"right_children":[2,4,-1,-1,-1],"split_conditions":[7.1E1,2.7932111E-2,-1.0001401E-1,-1.3264947E-2,1.0146119E-1],"split_indices":[26,27,0,0,0],"split_type":[0,0,0,0,0],"sum_hessian":[2.721557E2,1.13842514E2,1.583132E2,1.2877285E0,1.1255479E2],"tree_param":{"num_deleted":"0","num_feature":"35","num_nodes":"5","size_leaf_vector":"1"}},{"base_weights":[-1.6361819E-1,9.9704206E-1,-9.989142E-2,-6.3566933E-3,1.009398E-1],"categories":[],"categories_nodes":[],"categories_segments":[],"categories_sizes":[],"default_left":[0,0,0,0,0],"id":36,"left_children":[1,3,-1,-1,-1],"loss_changes":[2.41033E2,1.428566E0,0E0,0E0,0E0],"parents":[2147483647,0,0,1,1],"right_children":[2,4,-1,-1,-1],"split_conditions":[7E1,2.4713226E-2,-9.989142E-2,-6.3566933E-3,1.009398E-1],"split_indices":[26,27,0,0,0],"split_type":[0,0,0,0,0],"sum_hessian":[2.4658983E2,1.0311536E2,1.4347447E2,1.139711E0,1.0197565E2],"tree_param":{"num_deleted":"0","num_feature":"35","num_nodes":"5","size_leaf_vector":"1"}},{"base_weights":[-1.6182582E-1,9.760183E-1,-9.7576195E-1,-5.9176065E-2,1.0063821E-1,-9.976952E-2,5.3585786E-2],"categories":[],"categories_nodes":[],"categories_segments":[],"categories_sizes":[],"default_left":[0,0,0,0,0,0,0],"id":37,"left_children":[1,3,5,-1,-1,-1,-1],"loss_changes":[2.095964E2,5.091675E0,4.905632E0,0E0,0E0,0E0,0E0],"parents":[2147483647,0,0,1,1,2,2],"right_children":[2,4,6,-1,-1,-1,-1],"split_conditions":[1.1E1,2.6672566E-2,7.6620996E-2,-5.9176065E-2,1.0063821E-1,-9.976952E-2,5.3585786E-2],"split_indices":[19,27,27,0,0,0,0],"split_type":[0,0,0,0,0,0,0],"sum_hessian":[2.2428532E2,9.344897E1,1.3083636E2,1.4241991E0,9.2024765E1,1.2930023E2,1.53613E0],"tree_param":{"num_deleted":"0","num_feature":"35","num_nodes":"7","size_leaf_vector":"1"}},{"base_weights":[-1.6591747E-1,9.9159366E-1,-9.963306E-2,1.00518845E-1,-1.9326538E-3],"categories":[],"categories_nodes":[],"categories_segments":[],"categories_sizes":[],"default_left":[0,0,0,0,0],"id":38,"left_children":[1,3,-1,-1,-1],"loss_changes":[1.9608943E2,1.1915817E0,0E0,0E0,0E0],"parents":[2147483647,0,0,1,1],"right_children":[2,4,-1,-1,-1],"split_conditions":[7E1,1.2E1,-9.963306E-2,1.00518845E-1,-1.9326538E-3],"split_indices":[26,19,0,0,0],"split_type":[0,0,0,0,0],"sum_hessian":[2.0197435E2,8.428941E1,1.1768494E2,8.317653E1,1.1128877E0],"tree_param":{"num_deleted":"0","num_feature":"35","num_nodes":"5","size_leaf_vector":"1"}},{"base_weights":[-1.6622058E-1,9.8414636E-1,-9.9499434E-2,1.00307696E-1,-1.3802106E-2],"categories":[],"categories_nodes":[],"categories_segments":[],"categories_sizes":[],"default_left":[0,0,0,0,0],"id":39,"left_children":[1,3,-1,-1,-1],"loss_changes":[1.7634053E2,1.7853546E0,0E0,0E0,0E0],"parents":[2147483647,0,0,1,1],"right_children":[2,4,-1,-1,-1],"split_conditions":[7.1E1,1.3E1,-9.9499434E-2,1.00307696E-1,-1.3802106E-2],"split_indices":[26,19,0,0,0],"split_type":[0,0,0,0,0],"sum_hessian":[1.8293375E2,7.65258E1,1.0640795E2,7.536062E1,1.165182E0],"tree_param":{"num_deleted":"0","num_feature":"35","num_nodes":"5","size_leaf_vector":"1"}},{"base_weights":[-1.7178737E-1,9.826577E-1,-9.9367484E-2,2.988037E-3,9.9989906E-2],"categories":[],"categories_nodes":[],"categories_segments":[],"categories_sizes":[],"default_left":[0,0,0,0,0],"id":40,"left_children":[1,3,-1,-1,-1],"loss_changes":[1.590903E2,1.1167984E0,0E0,0E0,0E0],"parents":[2147483647,0,0,1,1],"right_children":[2,4,-1,-1,-1],"split_conditions":[7.1E1,2.7932111E-2,-9.9367484E-2,2.988037E-3,9.9989906E-2],"split_indices":[26,27,0,0,0],"split_type":[0,0,0,0,0],"sum_hessian":[1.6564195E2,6.880334E1,9.6838615E1,1.2715083E0,6.753183E1],"tree_param":{"num_deleted":"0","num_feature":"35","num_nodes":"5","size_leaf_vector":"1"}},{"base_weights":[-1.5433678E-1,-9.734055E-1,9.6454704E-1,3.141396E-2,-9.9241085E-2,9.9431954E-2,-2.400518E-2],"categories":[],"categories_nodes":[],"categories_segments":[],"categories_sizes":[],"default_left":[0,0,0,0,0,0,0],"id":41,"left_children":[1,3,5,-1,-1,-1,-1],"loss_changes":[1.421345E2,2.5006256E0,2.5920448E0,0E0,0E0,0E0,0E0],"parents":[2147483647,0,0,1,1,2,2],"right_children":[2,4,6,-1,-1,-1,-1],"split_conditions":[4.806393E-2,9E0,1.3E1,3.141396E-2,-9.9241085E-2,9.9431954E-2,-2.400518E-2],"split_indices":[27,19,19,0,0,0,0],"split_type":[0,0,0,0,0,0,0],"sum_hessian":[1.5306921E2,8.845013E1,6.461909E1,1.0607238E0,8.7389404E1,6.3230858E1,1.3882277E0],"tree_param":{"num_deleted":"0","num_feature":"35","num_nodes":"7","size_leaf_vector":"1"}},{"base_weights":[-1.7488743E-1,9.7223943E-1,-9.907565E-2,9.943253E-2,-1.1018261E-2],"categories":[],"categories_nodes":[],"categories_segments":[],"categories_sizes":[],"default_left":[0,0,0,0,0],"id":42,"left_children":[1,3,-1,-1,-1],"loss_changes":[1.287563E2,1.4783363E0,0E0,0E0,0E0],"parents":[2147483647,0,0,1,1],"right_children":[2,4,-1,-1,-1],"split_conditions":[7.1E1,1.3E1,-9.907565E-2,9.943253E-2,-1.1018261E-2],"split_indices":[26,19,0,0,0],"split_type":[0,0,0,0,0],"sum_hessian":[1.3554485E2,5.625609E1,7.928876E1,5.521095E1,1.0451404E0],"tree_param":{"num_deleted":"0","num_feature":"35","num_nodes":"5","size_leaf_vector":"1"}},{"base_weights":[-1.5247391E-1,9.728446E-1,-9.892463E-2,2.919047E-3,9.9204615E-2],"categories":[],"categories_nodes":[],"categories_segments":[],"categories_sizes":[],"default_left":[0,0,0,0,0],"id":43,"left_children":[1,3,-1,-1,-1],"loss_changes":[1.2033119E2,9.597664E-1,0E0,0E0,0E0],"parents":[2147483647,0,0,1,1],"right_children":[2,4,-1,-1,-1],"split_conditions":[7.1E1,2.7932111E-2,-9.892463E-2,2.919047E-3,9.9204615E-2],"split_indices":[26,27,0,0,0],"split_type":[0,0,0,0,0],"sum_hessian":[1.2576753E2,5.3566696E1,7.2200836E1,1.1184998E0,5.2448196E1],"tree_param":{"num_deleted":"0","num_feature":"35","num_nodes":"5","size_leaf_vector":"1"}},{"base_weights":[-1.7004341E-1,9.6275926E-1,-9.8748736E-2,9.885817E-2,-1.2282948E-2],"categories":[],"categories_nodes":[],"categories_segments":[],"categories_sizes":[],"default_left":[0,0,0,0,0],"id":44,"left_children":[1,3,-1,-1,-1],"loss_changes":[1.05495674E2,1.462162E0,0E0,0E0,0E0],"parents":[2147483647,0,0,1,1],"right_children":[2,4,-1,-1,-1],"split_conditions":[7.1E1,1.3E1,-9.8748736E-2,9.885817E-2,-1.2282948E-2],"split_indices":[26,19,0,0,0],"split_type":[0,0,0,0,0],"sum_hessian":[1.1189919E2,4.6827923E1,6.5071266E1,4.5827213E1,1.0007116E0],"tree_param":{"num_deleted":"0","num_feature":"35","num_nodes":"5","size_leaf_vector":"1"}},{"base_weights":[-1.4046553E-1,9.575159E-1,-9.857478E-2,1.7056573E-3,9.797196E-2],"categories":[],"categories_nodes":[],"categories_segments":[],"categories_sizes":[],"default_left":[0,0,0,0,0],"id":45,"left_children":[1,3,-1,-1,-1],"loss_changes":[9.890778E1,9.526291E-1,0E0,0E0,0E0],"parents":[2147483647,0,0,1,1],"right_children":[2,4,-1,-1,-1],"split_conditions":[7.1E1,7E0,-9.857478E-2,1.7056573E-3,9.797196E-2],"split_indices":[26,31,0,0,0],"split_type":[0,0,0,0,0],"sum_hessian":[1.04552704E2,4.542066E1,5.9132046E1,1.0884053E0,4.4332253E1],"tree_param":{"num_deleted":"0","num_feature":"35","num_nodes":"5","size_leaf_vector":"1"}},{"base_weights":[-1.583977E-1,9.229017E-1,-9.8390244E-2,-5.2166034E-2,9.747147E-2],"categories":[],"categories_nodes":[],"categories_segments":[],"categories_sizes":[],"default_left":[0,0,0,0,0],"id":46,"left_children":[1,3,-1,-1,-1],"loss_changes":[8.516797E1,3.6058388E0,0E0,0E0,0E0],"parents":[2147483647,0,0,1,1],"right_children":[2,4,-1,-1,-1],"split_conditions":[1.2E1,1.9854438E-2,-9.8390244E-2,-5.2166034E-2,9.747147E-2],"split_indices":[19,27,0,0,0],"split_type":[0,0,0,0,0],"sum_hessian":[9.339642E1,4.0382645E1,5.301378E1,1.0842856E0,3.929836E1],"tree_param":{"num_deleted":"0","num_feature":"35","num_nodes":"5","size_leaf_vector":"1"}},{"base_weights":[-1.320816E-1,9.674051E-1,-9.767278E-2,2.7057443E-2,9.803187E-2],"categories":[],"categories_nodes":[],"categories_segments":[],"categories_sizes":[],"default_left":[0,0,0,0,0],"id":47,"left_children":[1,3,-1,-1,-1],"loss_changes":[8.24134E1,8.223724E-2,0E0,0E0,0E0],"parents":[2147483647,0,0,1,1],"right_children":[2,4,-1,-1,-1],"split_conditions":[6.8E1,4.4246037E-2,-9.767278E-2,2.7057443E-2,9.803187E-2],"split_indices":[26,27,0,0,0],"split_type":[0,0,0,0,0],"sum_hessian":[8.672533E1,3.7615463E1,4.910986E1,1.0838238E0,3.653164E1],"tree_param":{"num_deleted":"0","num_feature":"35","num_nodes":"5","size_leaf_vector":"1"}},{"base_weights":[-1.3260594E-1,9.5177454E-1,-9.795507E-2,6.0306545E-3,9.775578E-2],"categories":[],"categories_nodes":[],"categories_segments":[],"categories_sizes":[],"default_left":[0,0,0,0,0],"id":48,"left_children":[1,3,-1,-1,-1],"loss_changes":[7.37744E1,7.521496E-1,0E0,0E0,0E0],"parents":[2147483647,0,0,1,1],"right_children":[2,4,-1,-1,-1],"split_conditions":[7.1E1,3.885938E-2,-9.795507E-2,6.0306545E-3,9.775578E-2],"split_indices":[26,27,0,0,0],"split_type":[0,0,0,0,0],"sum_hessian":[7.831322E1,3.428845E1,4.4024773E1,1.0576785E0,3.323077E1],"tree_param":{"num_deleted":"0","num_feature":"35","num_nodes":"5","size_leaf_vector":"1"}},{"base_weights":[-1.5422866E-1,9.458491E-1,-9.772372E-2,8.286095E-3,9.722208E-2],"categories":[],"categories_nodes":[],"categories_segments":[],"categories_sizes":[],"default_left":[0,0,0,0,0],"id":49,"left_children":[1,3,-1,-1,-1],"loss_changes":[6.51118E1,6.215172E-1,0E0,0E0,0E0],"parents":[2147483647,0,0,1,1],"right_children":[2,4,-1,-1,-1],"split_conditions":[7E1,3.885938E-2,-9.772372E-2,8.286095E-3,9.722208E-2],"split_indices":[26,27,0,0,0],"split_type":[0,0,0,0,0],"sum_hessian":[6.989615E1,2.9849045E1,4.0047104E1,1.0079182E0,2.8841125E1],"tree_param":{"num_deleted":"0","num_feature":"35","num_nodes":"5","size_leaf_vector":"1"}},{"base_weights":[-1.3905723E-1,9.323759E-1,-9.746417E-2,9.7043544E-2,-4.0269475E-3],"categories":[],"categories_nodes":[],"categories_segments":[],"categories_sizes":[],"default_left":[0,0,0,0,0],"id":50,"left_children":[1,3,-1,-1,-1],"loss_changes":[5.9583447E1,1.1210365E0,0E0,0E0,0E0],"parents":[2147483647,0,0,1,1],"right_children":[2,4,-1,-1,-1],"split_conditions":[7.1E1,1.1E1,-9.746417E-2,9.7043544E-2,-4.0269475E-3],"split_indices":[26,19,0,0,0],"split_type":[0,0,0,0,0],"sum_hessian":[6.453836E1,2.8227562E1,3.6310795E1,2.71668E1,1.0607628E0],"tree_param":{"num_deleted":"0","num_feature":"35","num_nodes":"5","size_leaf_vector":"1"}},{"base_weights":[-1.518376E-1,9.335879E-1,-9.717046E-2,9.647512E-2,8.978441E-3],"categories":[],"categories_nodes":[],"categories_segments":[],"categories_sizes":[],"default_left":[0,0,0,0,0],"id":51,"left_children":[1,3,-1,-1,-1],"loss_changes":[5.290593E1,5.879669E-1,0E0,0E0,0E0],"parents":[2147483647,0,0,1,1],"right_children":[2,4,-1,-1,-1],"split_conditions":[7.1E1,1.1E1,-9.717046E-2,9.647512E-2,8.978441E-3],"split_indices":[26,19,0,0,0],"split_type":[0,0,0,0,0],"sum_hessian":[5.743184E1,2.4653824E1,3.2778015E1,2.363751E1,1.0163137E0],"tree_param":{"num_deleted":"0","num_feature":"35","num_nodes":"5","size_leaf_vector":"1"}},{"base_weights":[-1.5051371E-1,9.113791E-1,-9.689889E-2,-1.2011143E-2,9.613977E-2],"categories":[],"categories_nodes":[],"categories_segments":[],"categories_sizes":[],"default_left":[0,0,0,0,0],"id":52,"left_children":[1,3,-1,-1,-1],"loss_changes":[4.7948994E1,1.3581905E0,0E0,0E0,0E0],"parents":[2147483647,0,0,1,1],"right_children":[2,4,-1,-1,-1],"split_conditions":[7.1E1,4.4246037E-2,-9.689889E-2,-1.2011143E-2,9.613977E-2],"split_indices":[26,27,0,0,0],"split_type":[0,0,0,0,0],"sum_hessian":[5.315268E1,2.308657E1,3.006611E1,1.0029174E0,2.2083652E1],"tree_param":{"num_deleted":"0","num_feature":"35","num_nodes":"5","size_leaf_vector":"1"}},{"base_weights":[-1.416672E-1,9.1772026E-1,-9.657594E-2,4.732214E-3,9.569968E-2],"categories":[],"categories_nodes":[],"categories_segments":[],"categories_sizes":[],"default_left":[0,0,0,0,0],"id":53,"left_children":[1,3,-1,-1,-1],"loss_changes":[4.4086296E1,7.123909E-1,0E0,0E0,0E0],"parents":[2147483647,0,0,1,1],"right_children":[2,4,-1,-1,-1],"split_conditions":[7.1E1,4.806393E-2,-9.657594E-2,4.732214E-3,9.569968E-2],"split_indices":[26,27,0,0,0],"split_type":[0,0,0,0,0],"sum_hessian":[4.848267E1,2.1163254E1,2.7319416E1,1.0089515E0,2.0154303E1],"tree_param":{"num_deleted":"0","num_feature":"35","num_nodes":"5","size_leaf_vector":"1"}},{"base_weights":[-1.5722027E-1,9.2981316E-2,-9.5551856E-2],"categories":[],"categories_nodes":[],"categories_segments":[],"categories_sizes":[],"default_left":[0,0,0],"id":54,"left_children":[1,-1,-1],"loss_changes":[3.9368824E1,0E0,0E0],"parents":[2147483647,0,0],"right_children":[2,-1,-1],"split_conditions":[6.8E1,9.2981316E-2,-9.5551856E-2],"split_indices":[26,0,0],"split_type":[0,0,0],"sum_hessian":[4.3343624E1,1.8283056E1,2.5060568E1],"tree_param":{"num_deleted":"0","num_feature":"35","num_nodes":"3","size_leaf_vector":"1"}},{"base_weights":[-1.519461E-1,9.283669E-2,-9.34138E-1,-9.579506E-2,-1.9668803E-2],"categories":[],"categories_nodes":[],"categories_segments":[],"categories_sizes":[],"default_left":[0,0,0,0,0],"id":55,"left_children":[1,-1,3,-1,-1],"loss_changes":[3.5231102E1,0E0,2.3455238E-1,0E0,0E0],"parents":[2147483647,0,0,2,2],"right_children":[2,-1,4,-1,-1],"split_conditions":[6.6E1,9.283669E-2,3.5482932E-2,-9.579506E-2,-1.9668803E-2],"split_indices":[26,0,27,0,0],"split_type":[0,0,0,0,0],"sum_hessian":[3.966673E1,1.6580263E1,2.3086468E1,2.2074665E1,1.0118035E0],"tree_param":{"num_deleted":"0","num_feature":"35","num_nodes":"5","size_leaf_vector":"1"}},{"base_weights":[-1.3749127E-1,-9.140062E-1,9.118111E-2,-1.6715653E-2,-9.531612E-2],"categories":[],"categories_nodes":[],"categories_segments":[],"categories_sizes":[],"default_left":[0,0,0,0,0],"id":56,"left_children":[1,3,-1,-1,-1],"loss_changes":[3.139669E1,4.856758E-1,0E0,0E0,0E0],"parents":[2147483647,0,0,1,1],"right_children":[2,4,-1,-1,-1],"split_conditions":[4.806393E-2,1.3E1,9.118111E-2,-1.6715653E-2,-9.531612E-2],"split_indices":[27,19,0,0,0],"split_type":[0,0,0,0,0],"sum_hessian":[3.6510227E1,2.1056633E1,1.5453594E1,1.3114235E0,1.9745209E1],"tree_param":{"num_deleted":"0","num_feature":"35","num_nodes":"5","size_leaf_vector":"1"}},{"base_weights":[-1.4285667E-1,8.746593E-1,-9.4978474E-2,9.353276E-2,4.026234E-4],"categories":[],"categories_nodes":[],"categories_segments":[],"categories_sizes":[],"default_left":[0,0,0,0,0],"id":57,"left_children":[1,3,-1,-1,-1],"loss_changes":[2.9017597E1,8.2572556E-1,0E0,0E0,0E0],"parents":[2147483647,0,0,1,1],"right_children":[2,4,-1,-1,-1],"split_conditions":[7.1E1,1E1,-9.4978474E-2,9.353276E-2,4.026234E-4],"split_indices":[26,19,0,0,0],"split_type":[0,0,0,0,0],"sum_hessian":[3.3329746E1,1.4704193E1,1.8625555E1,1.3676843E1,1.0273504E0],"tree_param":{"num_deleted":"0","num_feature":"35","num_nodes":"5","size_leaf_vector":"1"}},{"base_weights":[-1.395224E-1,8.702898E-1,-9.452373E-2,9.2922896E-2,3.7461955E-3],"categories":[],"categories_nodes":[],"categories_segments":[],"categories_sizes":[],"default_left":[0,0,0,0,0],"id":58,"left_children":[1,3,-1,-1,-1],"loss_changes":[2.651126E1,6.7853737E-1,0E0,0E0,0E0],"parents":[2147483647,0,0,1,1],"right_children":[2,4,-1,-1,-1],"split_conditions":[7.1E1,1E1,-9.452373E-2,9.2922896E-2,3.7461955E-3],"split_indices":[26,19,0,0,0],"split_type":[0,0,0,0,0],"sum_hessian":[3.0573225E1,1.3532558E1,1.7040667E1,1.2530056E1,1.0025026E0],"tree_param":{"num_deleted":"0","num_feature":"35","num_nodes":"5","size_leaf_vector":"1"}},{"base_weights":[-1.2891945E-1,8.711444E-1,-9.401172E-2,9.217183E-2,1.9300465E-2],"categories":[],"categories_nodes":[],"categories_segments":[],"categories_sizes":[],"default_left":[0,0,0,0,0],"id":59,"left_children":[1,3,-1,-1,-1],"loss_changes":[2.4403223E1,2.8644466E-1,0E0,0E0,0E0],"parents":[2147483647,0,0,1,1],"right_children":[2,4,-1,-1,-1],"split_conditions":[7.1E1,9E0,-9.401172E-2,9.217183E-2,1.9300465E-2],"split_indices":[26,19,0,0,0],"split_type":[0,0,0,0,0],"sum_hessian":[2.8071507E1,1.25391035E1,1.5532403E1,1.133461E1,1.2044928E0],"tree_param":{"num_deleted":"0","num_feature":"35","num_nodes":"5","size_leaf_vector":"1"}},{"base_weights":[-1.3131398E-1,8.85921E-2,-8.94464E-1,-9.33205E-2,-1.727506E-2],"categories":[],"categories_nodes":[],"categories_segments":[],"categories_sizes":[],"default_left":[0,0,0,0,0],"id":60,"left_children":[1,-1,3,-1,-1],"loss_changes":[2.1460896E1,0E0,2.7802277E-1,0E0,0E0],"parents":[2147483647,0,0,2,2],"right_children":[2,-1,4,-1,-1],"split_conditions":[1.1E1,8.85921E-2,3.198209E-2,-9.33205E-2,-1.727506E-2],"split_indices":[19,0,27,0,0],"split_type":[0,0,0,0,0],"sum_hessian":[2.5624233E1,1.0914698E1,1.4709536E1,1.3682055E1,1.0274807E0],"tree_param":{"num_deleted":"0","num_feature":"35","num_nodes":"5","size_leaf_vector":"1"}},{"base_weights":[-1.225049E-1,8.310837E-1,-9.284182E-2,9.996994E-3,9.061033E-2],"categories":[],"categories_nodes":[],"categories_segments":[],"categories_sizes":[],"default_left":[0,0,0,0,0],"id":61,"left_children":[1,3,-1,-1,-1],"loss_changes":[1.9774061E1,5.5954075E-1,0E0,0E0,0E0],"parents":[2147483647,0,0,1,1],"right_children":[2,4,-1,-1,-1],"split_conditions":[7.1E1,1E1,-9.284182E-2,9.996994E-3,9.061033E-2],"split_indices":[26,31,0,0,0],"split_type":[0,0,0,0,0],"sum_hessian":[2.372639E1,1.08532095E1,1.2873181E1,1.2270834E0,9.626125E0],"tree_param":{"num_deleted":"0","num_feature":"35","num_nodes":"5","size_leaf_vector":"1"}},{"base_weights":[-1.2331747E-1,8.3018947E-1,-9.219887E-2,8.9149766E-2,1.5264526E-2],"categories":[],"categories_nodes":[],"categories_segments":[],"categories_sizes":[],"default_left":[0,0,0,0,0],"id":62,"left_children":[1,3,-1,-1,-1],"loss_changes":[1.7937601E1,3.1272697E-1,0E0,0E0,0E0],"parents":[2147483647,0,0,1,1],"right_children":[2,4,-1,-1,-1],"split_conditions":[7.1E1,6.2E1,-9.219887E-2,8.9149766E-2,1.5264526E-2],"split_indices":[26,26,0,0,0],"split_type":[0,0,0,0,0],"sum_hessian":[2.1549318E1,9.804541E0,1.1744777E1,8.701407E0,1.103133E0],"tree_param":{"num_deleted":"0","num_feature":"35","num_nodes":"5","size_leaf_vector":"1"}},{"base_weights":[-1.3484909E-1,8.211271E-1,-9.151731E-2,8.825833E-2,1.5017902E-2],"categories":[],"categories_nodes":[],"categories_segments":[],"categories_sizes":[],"default_left":[0,0,0,0,0],"id":63,"left_children":[1,3,-1,-1,-1],"loss_changes":[1.6006222E1,2.6814318E-1,0E0,0E0,0E0],"parents":[2147483647,0,0,1,1],"right_children":[2,4,-1,-1,-1],"split_conditions":[7.1E1,6.2E1,-9.151731E-2,8.825833E-2,1.5017902E-2],"split_indices":[26,26,0,0,0],"split_type":[0,0,0,0,0],"sum_hessian":[1.9449514E1,8.717455E0,1.0732059E1,7.6970124E0,1.020443E0],"tree_param":{"num_deleted":"0","num_feature":"35","num_nodes":"5","size_leaf_vector":"1"}},{"base_weights":[-1.06449015E-1,8.3442974E-1,-8.757279E-2,8.804704E-2,2.4509756E-2],"categories":[],"categories_nodes":[],"categories_segments":[],"categories_sizes":[],"default_left":[0,0,0,0,0],"id":64,"left_children":[1,3,-1,-1,-1],"loss_changes":[1.4911326E1,3.7219048E-2,0E0,0E0,0E0],"parents":[2147483647,0,0,1,1],"right_children":[2,4,-1,-1,-1],"split_conditions":[1.2E1,6.2E1,-8.757279E-2,8.804704E-2,2.4509756E-2],"split_indices":[19,26,0,0,0],"split_type":[0,0,0,0,0],"sum_hessian":[1.8591917E1,8.325091E0,1.0266826E1,7.2636185E0,1.0614725E0],"tree_param":{"num_deleted":"0","num_feature":"35","num_nodes":"5","size_leaf_vector":"1"}},{"base_weights":[-1.3495988E-1,-8.851359E-2,8.1992194E-2],"categories":[],"categories_nodes":[],"categories_segments":[],"categories_sizes":[],"default_left":[0,0,0],"id":65,"left_children":[1,-1,-1],"loss_changes":[1.3343546E1,0E0,0E0],"parents":[2147483647,0,0],"right_children":[2,-1,-1],"split_conditions":[4.122211E-2,-8.851359E-2,8.1992194E-2],"split_indices":[27,0,0],"split_type":[0,0,0],"sum_hessian":[1.6614527E1,9.345522E0,7.269005E0],"tree_param":{"num_deleted":"0","num_feature":"35","num_nodes":"3","size_leaf_vector":"1"}},{"base_weights":[-1.2925823E-1,8.0930635E-2,-8.773739E-2],"categories":[],"categories_nodes":[],"categories_segments":[],"categories_sizes":[],"default_left":[0,0,0],"id":66,"left_children":[1,-1,-1],"loss_changes":[1.221435E1,0E0,0E0],"parents":[2147483647,0,0],"right_children":[2,-1,-1],"split_conditions":[6.8E1,8.0930635E-2,-8.773739E-2],"split_indices":[26,0,0],"split_type":[0,0,0],"sum_hessian":[1.5384258E1,6.7873054E0,8.596953E0],"tree_param":{"num_deleted":"0","num_feature":"35","num_nodes":"3","size_leaf_vector":"1"}},{"base_weights":[-1.0974079E-1,7.721986E-1,-8.83746E-2,1.3843039E-2,8.486449E-2],"categories":[],"categories_nodes":[],"categories_segments":[],"categories_sizes":[],"default_left":[0,0,0,0,0],"id":67,"left_children":[1,3,-1,-1,-1],"loss_changes":[1.1082548E1,2.5339508E-1,0E0,0E0,0E0],"parents":[2147483647,0,0,1,1],"right_children":[2,4,-1,-1,-1],"split_conditions":[7.1E1,3E0,-8.83746E-2,1.3843039E-2,8.486449E-2],"split_indices":[26,30,0,0,0],"split_type":[0,0,0,0,0],"sum_hessian":[1.4235465E1,6.6548905E0,7.5805745E0,1.018873E0,5.636018E0],"tree_param":{"num_deleted":"0","num_feature":"35","num_nodes":"5","size_leaf_vector":"1"}},{"base_weights":[-1.12672254E-1,-8.349649E-2,8.2525946E-2],"categories":[],"categories_nodes":[],"categories_segments":[],"categories_sizes":[],"default_left":[0,0,0],"id":68,"left_children":[1,-1,-1],"loss_changes":[1.0306031E1,0E0,0E0],"parents":[2147483647,0,0],"right_children":[2,-1,-1],"split_conditions":[5.3736996E-2,-8.349649E-2,8.2525946E-2],"split_indices":[27,0,0],"split_type":[0,0,0],"sum_hessian":[1.31956005E1,7.516779E0,5.678822E0],"tree_param":{"num_deleted":"0","num_feature":"35","num_nodes":"3","size_leaf_vector":"1"}},{"base_weights":[-1.0842243E-1,-8.444192E-2,7.793852E-2],"categories":[],"categories_nodes":[],"categories_segments":[],"categories_sizes":[],"default_left":[0,0,0],"id":69,"left_children":[1,-1,-1],"loss_changes":[9.279814E0,0E0,0E0],"parents":[2147483647,0,0],"right_children":[2,-1,-1],"split_conditions":[4.122211E-2,-8.444192E-2,7.793852E-2],"split_indices":[27,0,0],"split_type":[0,0,0],"sum_hessian":[1.2194636E1,6.694082E0,5.500555E0],"tree_param":{"num_deleted":"0","num_feature":"35","num_nodes":"3","size_leaf_vector":"1"}},{"base_weights":[-8.903224E-2,7.584917E-2,-8.558378E-2],"categories":[],"categories_nodes":[],"categories_segments":[],"categories_sizes":[],"default_left":[0,0,0],"id":70,"left_children":[1,-1,-1],"loss_changes":[8.640408E0,0E0,0E0],"parents":[2147483647,0,0],"right_children":[2,-1,-1],"split_conditions":[7.1E1,7.584917E-2,-8.558378E-2],"split_indices":[26,0,0],"split_type":[0,0,0],"sum_hessian":[1.1296405E1,5.370936E0,5.925469E0],"tree_param":{"num_deleted":"0","num_feature":"35","num_nodes":"3","size_leaf_vector":"1"}},{"base_weights":[-1.319102E-1,-8.233883E-2,7.735638E-2],"categories":[],"categories_nodes":[],"categories_segments":[],"categories_sizes":[],"default_left":[0,0,0],"id":71,"left_children":[1,-1,-1],"loss_changes":[7.6056094E0,0E0,0E0],"parents":[2147483647,0,0],"right_children":[2,-1,-1],"split_conditions":[5.3736996E-2,-8.233883E-2,7.735638E-2],"split_indices":[27,0,0],"split_type":[0,0,0],"sum_hessian":[1.0130002E1,5.795126E0,4.3348756E0],"tree_param":{"num_deleted":"0","num_feature":"35","num_nodes":"3","size_leaf_vector":"1"}},{"base_weights":[-1.0744988E-1,-7.9007976E-2,7.6814584E-2],"categories":[],"categories_nodes":[],"categories_segments":[],"categories_sizes":[],"default_left":[0,0,0],"id":72,"left_children":[1,-1,-1],"loss_changes":[6.9384837E0,0E0,0E0],"parents":[2147483647,0,0],"right_children":[2,-1,-1],"split_conditions":[5.3736996E-2,-7.9007976E-2,7.6814584E-2],"split_indices":[27,0,0],"split_type":[0,0,0],"sum_hessian":[9.593114E0,5.4454284E0,4.1476855E0],"tree_param":{"num_deleted":"0","num_feature":"35","num_nodes":"3","size_leaf_vector":"1"}},{"base_weights":[-8.681639E-2,7.448309E-2,-8.048344E-2],"categories":[],"categories_nodes":[],"categories_segments":[],"categories_sizes":[],"default_left":[0,0,0],"id":73,"left_children":[1,-1,-1],"loss_changes":[6.6144586E0,0E0,0E0],"parents":[2147483647,0,0],"right_children":[2,-1,-1],"split_conditions":[1.2E1,7.448309E-2,-8.048344E-2],"split_indices":[19,0,0],"split_type":[0,0,0],"sum_hessian":[9.073041E0,4.1865773E0,4.8864636E0],"tree_param":{"num_deleted":"0","num_feature":"35","num_nodes":"3","size_leaf_vector":"1"}},{"base_weights":[-9.338346E-2,6.8370484E-2,-8.1306614E-2],"categories":[],"categories_nodes":[],"categories_segments":[],"categories_sizes":[],"default_left":[0,0,0],"id":74,"left_children":[1,-1,-1],"loss_changes":[5.820735E0,0E0,0E0],"parents":[2147483647,0,0],"right_children":[2,-1,-1],"split_conditions":[7.1E1,6.8370484E-2,-8.1306614E-2],"split_indices":[26,0,0],"split_type":[0,0,0],"sum_hessian":[8.413986E0,4.0696793E0,4.344307E0],"tree_param":{"num_deleted":"0","num_feature":"35","num_nodes":"3","size_leaf_vector":"1"}},{"base_weights":[-8.770408E-2,7.503178E-2,-7.4785925E-2],"categories":[],"categories_nodes":[],"categories_segments":[],"categories_sizes":[],"default_left":[0,0,0],"id":75,"left_children":[1,-1,-1],"loss_changes":[5.412892E0,0E0,0E0],"parents":[2147483647,0,0],"right_children":[2,-1,-1],"split_conditions":[1E1,7.503178E-2,-7.4785925E-2],"split_indices":[19,0,0],"split_type":[0,0,0],"sum_hessian":[7.7699656E0,3.3635678E0,4.406398E0],"tree_param":{"num_deleted":"0","num_feature":"35","num_nodes":"3","size_leaf_vector":"1"}},{"base_weights":[-8.1395425E-2,-7.6231666E-2,7.138624E-2],"categories":[],"categories_nodes":[],"categories_segments":[],"categories_sizes":[],"default_left":[0,0,0],"id":76,"left_children":[1,-1,-1],"loss_changes":[5.028396E0,0E0,0E0],"parents":[2147483647,0,0],"right_children":[2,-1,-1],"split_conditions":[4.806393E-2,-7.6231666E-2,7.138624E-2],"split_indices":[27,0,0],"split_type":[0,0,0],"sum_hessian":[7.2809625E0,3.944768E0,3.3361945E0],"tree_param":{"num_deleted":"0","num_feature":"35","num_nodes":"3","size_leaf_vector":"1"}},{"base_weights":[-6.940464E-2,6.7061596E-2,-7.755272E-2],"categories":[],"categories_nodes":[],"categories_segments":[],"categories_sizes":[],"default_left":[0,0,0],"id":77,"left_children":[1,-1,-1],"loss_changes":[4.592591E0,0E0,0E0],"parents":[2147483647,0,0],"right_children":[2,-1,-1],"split_conditions":[7.1E1,6.7061596E-2,-7.755272E-2],"split_indices":[26,0,0],"split_type":[0,0,0],"sum_hessian":[6.7936034E0,3.3417325E0,3.451871E0],"tree_param":{"num_deleted":"0","num_feature":"35","num_nodes":"3","size_leaf_vector":"1"}},{"base_weights":[-6.3485E-2,6.8822406E-2,-7.2491005E-2],"categories":[],"categories_nodes":[],"categories_segments":[],"categories_sizes":[],"default_left":[0,0,0],"id":78,"left_children":[1,-1,-1],"loss_changes":[4.224481E0,0E0,0E0],"parents":[2147483647,0,0],"right_children":[2,-1,-1],"split_conditions":[1.2E1,6.8822406E-2,-7.2491005E-2],"split_indices":[19,0,0],"split_type":[0,0,0],"sum_hessian":[6.493136E0,3.020183E0,3.4729526E0],"tree_param":{"num_deleted":"0","num_feature":"35","num_nodes":"3","size_leaf_vector":"1"}},{"base_weights":[-9.1074504E-2,7.030798E-2,-7.416629E-2],"categories":[],"categories_nodes":[],"categories_segments":[],"categories_sizes":[],"default_left":[0,0,0],"id":79,"left_children":[1,-1,-1],"loss_changes":[4.0542445E0,0E0,0E0],"parents":[2147483647,0,0],"right_children":[2,-1,-1],"split_conditions":[6.5E1,7.030798E-2,-7.416629E-2],"split_indices":[26,0,0],"split_type":[0,0,0],"sum_hessian":[5.8376594E0,2.5924492E0,3.2452104E0],"tree_param":{"num_deleted":"0","num_feature":"35","num_nodes":"3","size_leaf_vector":"1"}},{"base_weights":[-6.551789E-2,6.5198645E-2,-7.0806175E-2],"categories":[],"categories_nodes":[],"categories_segments":[],"categories_sizes":[],"default_left":[0,0,0],"id":80,"left_children":[1,-1,-1],"loss_changes":[3.5036585E0,0E0,0E0],"parents":[2147483647,0,0],"right_children":[2,-1,-1],"split_conditions":[1.2E1,6.5198645E-2,-7.0806175E-2],"split_indices":[19,0,0],"split_type":[0,0,0],"sum_hessian":[5.5983233E0,2.6379404E0,2.9603832E0],"tree_param":{"num_deleted":"0","num_feature":"35","num_nodes":"3","size_leaf_vector":"1"}},{"base_weights":[-1.0381492E-1,-6.7730896E-2,6.7147374E-2],"categories":[],"categories_nodes":[],"categories_segments":[],"categories_sizes":[],"default_left":[0,0,0],"id":81,"left_children":[1,-1,-1],"loss_changes":[3.1750767E0,0E0,0E0],"parents":[2147483647,0,0],"right_children":[2,-1,-1],"split_conditions":[7.6620996E-2,-6.7730896E-2,6.7147374E-2],"split_indices":[27,0,0],"split_type":[0,0,0],"sum_hessian":[5.1181693E0,3.0145986E0,2.103571E0],"tree_param":{"num_deleted":"0","num_feature":"35","num_nodes":"3","size_leaf_vector":"1"}},{"base_weights":[-3.5937708E-2,6.0207453E-2,-7.082786E-2],"categories":[],"categories_nodes":[],"categories_segments":[],"categories_sizes":[],"default_left":[0,0,0],"id":82,"left_children":[1,-1,-1],"loss_changes":[3.0405414E0,0E0,0E0],"parents":[2147483647,0,0],"right_children":[2,-1,-1],"split_conditions":[7.1E1,6.0207453E-2,-7.082786E-2],"split_indices":[26,0,0],"split_type":[0,0,0],"sum_hessian":[5.09403E0,2.6673656E0,2.4266644E0],"tree_param":{"num_deleted":"0","num_feature":"35","num_nodes":"3","size_leaf_vector":"1"}},{"base_weights":[-3.904408E-2,5.979253E-2,-6.948708E-2],"categories":[],"categories_nodes":[],"categories_segments":[],"categories_sizes":[],"default_left":[0,0,0],"id":83,"left_children":[1,-1,-1],"loss_changes":[2.801188E0,0E0,0E0],"parents":[2147483647,0,0],"right_children":[2,-1,-1],"split_conditions":[7.1E1,5.979253E-2,-6.948708E-2],"split_indices":[26,0,0],"split_type":[0,0,0],"sum_hessian":[4.7109656E0,2.4346287E0,2.2763371E0],"tree_param":{"num_deleted":"0","num_feature":"35","num_nodes":"3","size_leaf_vector":"1"}},{"base_weights":[-5.6106534E-2,6.0568947E-2,-6.6069506E-2],"categories":[],"categories_nodes":[],"categories_segments":[],"categories_sizes":[],"default_left":[0,0,0],"id":84,"left_children":[1,-1,-1],"loss_changes":[2.578511E0,0E0,0E0],"parents":[2147483647,0,0],"right_children":[2,-1,-1],"split_conditions":[1.2E1,6.0568947E-2,-6.6069506E-2],"split_indices":[19,0,0],"split_type":[0,0,0],"sum_hessian":[4.4442816E0,2.1208887E0,2.3233929E0],"tree_param":{"num_deleted":"0","num_feature":"35","num_nodes":"3","size_leaf_vector":"1"}},{"base_weights":[-4.617151E-2,6.356296E-2,-6.307216E-2],"categories":[],"categories_nodes":[],"categories_segments":[],"categories_sizes":[],"default_left":[0,0,0],"id":85,"left_children":[1,-1,-1],"loss_changes":[2.4489725E0,0E0,0E0],"parents":[2147483647,0,0],"right_children":[2,-1,-1],"split_conditions":[6.5E1,6.356296E-2,-6.307216E-2],"split_indices":[26,0,0],"split_type":[0,0,0],"sum_hessian":[4.138837E0,1.8701588E0,2.268678E0],"tree_param":{"num_deleted":"0","num_feature":"35","num_nodes":"3","size_leaf_vector":"1"}},{"base_weights":[-3.3787355E-2,6.1991837E-2,-6.0221817E-2],"categories":[],"categories_nodes":[],"categories_segments":[],"categories_sizes":[],"default_left":[0,0,0],"id":86,"left_children":[1,-1,-1],"loss_changes":[2.2244773E0,0E0,0E0],"parents":[2147483647,0,0],"right_children":[2,-1,-1],"split_conditions":[6.5E1,6.1991837E-2,-6.0221817E-2],"split_indices":[26,0,0],"split_type":[0,0,0],"sum_hessian":[3.981751E0,1.8098323E0,2.1719186E0],"tree_param":{"num_deleted":"0","num_feature":"35","num_nodes":"3","size_leaf_vector":"1"}},{"base_weights":[-7.556903E-2,-6.3679494E-2,5.5965222E-2],"categories":[],"categories_nodes":[],"categories_segments":[],"categories_sizes":[],"default_left":[0,0,0],"id":87,"left_children":[1,-1,-1],"loss_changes":[1.9980785E0,0E0,0E0],"parents":[2147483647,0,0],"right_children":[2,-1,-1],"split_conditions":[4.122211E-2,-6.3679494E-2,5.5965222E-2],"split_indices":[27,0,0],"split_type":[0,0,0],"sum_hessian":[3.605001E0,1.9126624E0,1.6923386E0],"tree_param":{"num_deleted":"0","num_feature":"35","num_nodes":"3","size_leaf_vector":"1"}},{"base_weights":[-4.8516195E-2,5.2104987E-2,-6.336681E-2],"categories":[],"categories_nodes":[],"categories_segments":[],"categories_sizes":[],"default_left":[0,0,0],"id":88,"left_children":[1,-1,-1],"loss_changes":[1.8623809E0,0E0,0E0],"parents":[2147483647,0,0],"right_children":[2,-1,-1],"split_conditions":[1.4E1,5.2104987E-2,-6.336681E-2],"split_indices":[19,0,0],"split_type":[0,0,0],"sum_hessian":[3.5973241E0,1.8784527E0,1.7188715E0],"tree_param":{"num_deleted":"0","num_feature":"35","num_nodes":"3","size_leaf_vector":"1"}},{"base_weights":[-4.37523E-2,-5.6827832E-2,5.6450345E-2],"categories":[],"categories_nodes":[],"categories_segments":[],"categories_sizes":[],"default_left":[0,0,0],"id":89,"left_children":[1,-1,-1],"loss_changes":[1.7102963E0,0E0,0E0],"parents":[2147483647,0,0],"right_children":[2,-1,-1],"split_conditions":[1E1,-5.6827832E-2,5.6450345E-2],"split_indices":[31,0,0],"split_type":[0,0,0],"sum_hessian":[3.3551755E0,1.8368783E0,1.5182972E0],"tree_param":{"num_deleted":"0","num_feature":"35","num_nodes":"3","size_leaf_vector":"1"}},{"base_weights":[-3.329548E-2,5.0581235E-2,-6.0253974E-2],"categories":[],"categories_nodes":[],"categories_segments":[],"categories_sizes":[],"default_left":[0,0,0],"id":90,"left_children":[1,-1,-1],"loss_changes":[1.603933E0,0E0,0E0],"parents":[2147483647,0,0],"right_children":[2,-1,-1],"split_conditions":[7.1E1,5.0581235E-2,-6.0253974E-2],"split_indices":[26,0,0],"split_type":[0,0,0],"sum_hessian":[3.2333946E0,1.7178866E0,1.515508E0],"tree_param":{"num_deleted":"0","num_feature":"35","num_nodes":"3","size_leaf_vector":"1"}},{"base_weights":[-1.9100001E-2,5.5614103E-2,-5.2906197E-2],"categories":[],"categories_nodes":[],"categories_segments":[],"categories_sizes":[],"default_left":[0,0,0],"id":91,"left_children":[1,-1,-1],"loss_changes":[1.4867322E0,0E0,0E0],"parents":[2147483647,0,0],"right_children":[2,-1,-1],"split_conditions":[1E1,5.5614103E-2,-5.2906197E-2],"split_indices":[19,0,0],"split_type":[0,0,0],"sum_hessian":[3.0650926E0,1.3978045E0,1.6672881E0],"tree_param":{"num_deleted":"0","num_feature":"35","num_nodes":"3","size_leaf_vector":"1"}},{"base_weights":[-4.0868413E-2,5.0956476E-2,-5.5859145E-2],"categories":[],"categories_nodes":[],"categories_segments":[],"categories_sizes":[],"default_left":[0,0,0],"id":92,"left_children":[1,-1,-1],"loss_changes":[1.4024724E0,0E0,0E0],"parents":[2147483647,0,0],"right_children":[2,-1,-1],"split_conditions":[1.2E1,5.0956476E-2,-5.5859145E-2],"split_indices":[19,0,0],"split_type":[0,0,0],"sum_hessian":[2.9226103E0,1.4241931E0,1.498417E0],"tree_param":{"num_deleted":"0","num_feature":"35","num_nodes":"3","size_leaf_vector":"1"}},{"base_weights":[-6.0415495E-2,5.128726E-2,-5.586523E-2],"categories":[],"categories_nodes":[],"categories_segments":[],"categories_sizes":[],"default_left":[0,0,0],"id":93,"left_children":[1,-1,-1],"loss_changes":[1.3300266E0,0E0,0E0],"parents":[2147483647,0,0],"right_children":[2,-1,-1],"split_conditions":[6.5E1,5.128726E-2,-5.586523E-2],"split_indices":[26,0,0],"split_type":[0,0,0],"sum_hessian":[2.6533196E0,1.2200797E0,1.4332399E0],"tree_param":{"num_deleted":"0","num_feature":"35","num_nodes":"3","size_leaf_vector":"1"}},{"base_weights":[-2.0870185E-2,4.707433E-2,-5.480161E-2],"categories":[],"categories_nodes":[],"categories_segments":[],"categories_sizes":[],"default_left":[0,0,0],"id":94,"left_children":[1,-1,-1],"loss_changes":[1.1978779E0,0E0,0E0],"parents":[2147483647,0,0],"right_children":[2,-1,-1],"split_conditions":[7.1E1,4.707433E-2,-5.480161E-2],"split_indices":[26,0,0],"split_type":[0,0,0],"sum_hessian":[2.6268404E0,1.4145938E0,1.2122465E0],"tree_param":{"num_deleted":"0","num_feature":"35","num_nodes":"3","size_leaf_vector":"1"}},{"base_weights":[-4.148969E-2,-5.2765545E-2,4.828207E-2],"categories":[],"categories_nodes":[],"categories_segments":[],"categories_sizes":[],"default_left":[0,0,0],"id":95,"left_children":[1,-1,-1],"loss_changes":[1.1549441E0,0E0,0E0],"parents":[2147483647,0,0],"right_children":[2,-1,-1],"split_conditions":[3.7113175E-2,-5.2765545E-2,4.828207E-2],"split_indices":[27,0,0],"split_type":[0,0,0],"sum_hessian":[2.531483E0,1.3102119E0,1.2212712E0],"tree_param":{"num_deleted":"0","num_feature":"35","num_nodes":"3","size_leaf_vector":"1"}},{"base_weights":[-3.0403566E-2,-4.9996503E-2,4.9603462E-2],"categories":[],"categories_nodes":[],"categories_segments":[],"categories_sizes":[],"default_left":[0,0,0],"id":96,"left_children":[1,-1,-1],"loss_changes":[1.1102109E0,0E0,0E0],"parents":[2147483647,0,0],"right_children":[2,-1,-1],"split_conditions":[1E1,-4.9996503E-2,4.9603462E-2],"split_indices":[31,0,0],"split_type":[0,0,0],"sum_hessian":[2.4879782E0,1.3416069E0,1.1463714E0],"tree_param":{"num_deleted":"0","num_feature":"35","num_nodes":"3","size_leaf_vector":"1"}},{"base_weights":[-3.0152509E-2,5.0196536E-2,-4.935274E-2],"categories":[],"categories_nodes":[],"categories_segments":[],"categories_sizes":[],"default_left":[0,0,0],"id":97,"left_children":[1,-1,-1],"loss_changes":[1.0706162E0,0E0,0E0],"parents":[2147483647,0,0],"right_children":[2,-1,-1],"split_conditions":[6.3E1,5.0196536E-2,-4.935274E-2],"split_indices":[26,0,0],"split_type":[0,0,0],"sum_hessian":[2.3373182E0,1.049193E0,1.2881252E0],"tree_param":{"num_deleted":"0","num_feature":"35","num_nodes":"3","size_leaf_vector":"1"}},{"base_weights":[-2.1692485E-2,-4.8704933E-2,4.4352874E-2],"categories":[],"categories_nodes":[],"categories_segments":[],"categories_sizes":[],"default_left":[0,0,0],"id":98,"left_children":[1,-1,-1],"loss_changes":[8.901969E-1,0E0,0E0],"parents":[2147483647,0,0],"right_children":[2,-1,-1],"split_conditions":[3.7113175E-2,-4.8704933E-2,4.4352874E-2],"split_indices":[27,0,0],"split_type":[0,0,0],"sum_hessian":[2.1140678E0,1.0334233E0,1.0806444E0],"tree_param":{"num_deleted":"0","num_feature":"35","num_nodes":"3","size_leaf_vector":"1"}},{"base_weights":[-4.2243082E-2,4.2220276E-2,-4.899014E-2],"categories":[],"categories_nodes":[],"categories_segments":[],"categories_sizes":[],"default_left":[0,0,0],"id":99,"left_children":[1,-1,-1],"loss_changes":[8.564013E-1,0E0,0E0],"parents":[2147483647,0,0],"right_children":[2,-1,-1],"split_conditions":[1.3E1,4.2220276E-2,-4.899014E-2],"split_indices":[19,0,0],"split_type":[0,0,0],"sum_hessian":[2.1242082E0,1.0704645E0,1.0537438E0],"tree_param":{"num_deleted":"0","num_feature":"35","num_nodes":"3","size_leaf_vector":"1"}}]},"name":"gbtree"},"learner_model_param":{"base_score":"2.1048011E-1","boost_from_average":"1","num_class":"0","num_feature":"35","num_target":"1"},"objective":{"name":"binary:logistic","reg_loss_param":{"scale_pos_weight":"10"}}},"version":[3,0,2]}